digraph Tree {
node [shape=box] ;
0 [label="ram <= 2735.0\ngini = 0.749\nsamples = 1340\nvalue = [342, 348, 301, 349]"] ;
1 [label="ram <= 1306.5\ngini = 0.662\nsamples = 905\nvalue = [342, 346, 200, 17]"] ;
0 -> 1 [labeldistance=2.5, labelangle=45, headlabel="True"] ;
2 [label="px_height <= 1449.0\ngini = 0.31\nsamples = 386\nvalue = [313, 70, 3, 0]"] ;
1 -> 2 ;
3 [label="ram <= 1066.5\ngini = 0.251\nsamples = 363\nvalue = [310, 51, 2, 0]"] ;
2 -> 3 ;
4 [label="battery_power <= 1838.0\ngini = 0.107\nsamples = 281\nvalue = [265, 16, 0, 0]"] ;
3 -> 4 ;
5 [label="int_memory <= 63.5\ngini = 0.055\nsamples = 248\nvalue = [241, 7, 0, 0]"] ;
4 -> 5 ;
6 [label="battery_power <= 1329.0\ngini = 0.048\nsamples = 246\nvalue = [240, 6, 0, 0]"] ;
5 -> 6 ;
7 [label="gini = 0.0\nsamples = 158\nvalue = [158, 0, 0, 0]"] ;
6 -> 7 ;
8 [label="px_width <= 1977.0\ngini = 0.127\nsamples = 88\nvalue = [82, 6, 0, 0]"] ;
6 -> 8 ;
9 [label="battery_power <= 1337.0\ngini = 0.108\nsamples = 87\nvalue = [82, 5, 0, 0]"] ;
8 -> 9 ;
10 [label="gini = 0.0\nsamples = 1\nvalue = [0, 1, 0, 0]"] ;
9 -> 10 ;
11 [label="ram <= 833.0\ngini = 0.089\nsamples = 86\nvalue = [82, 4, 0, 0]"] ;
9 -> 11 ;
12 [label="px_height <= 1279.0\ngini = 0.027\nsamples = 72\nvalue = [71, 1, 0, 0]"] ;
11 -> 12 ;
13 [label="gini = 0.0\nsamples = 68\nvalue = [68, 0, 0, 0]"] ;
12 -> 13 ;
14 [label="pc <= 17.0\ngini = 0.375\nsamples = 4\nvalue = [3, 1, 0, 0]"] ;
12 -> 14 ;
15 [label="gini = 0.0\nsamples = 3\nvalue = [3, 0, 0, 0]"] ;
14 -> 15 ;
16 [label="gini = 0.0\nsamples = 1\nvalue = [0, 1, 0, 0]"] ;
14 -> 16 ;
17 [label="ram <= 866.5\ngini = 0.337\nsamples = 14\nvalue = [11, 3, 0, 0]"] ;
11 -> 17 ;
18 [label="mobile_wt <= 158.5\ngini = 0.375\nsamples = 4\nvalue = [1, 3, 0, 0]"] ;
17 -> 18 ;
19 [label="gini = 0.0\nsamples = 3\nvalue = [0, 3, 0, 0]"] ;
18 -> 19 ;
20 [label="gini = 0.0\nsamples = 1\nvalue = [1, 0, 0, 0]"] ;
18 -> 20 ;
21 [label="gini = 0.0\nsamples = 10\nvalue = [10, 0, 0, 0]"] ;
17 -> 21 ;
22 [label="gini = 0.0\nsamples = 1\nvalue = [0, 1, 0, 0]"] ;
8 -> 22 ;
23 [label="m_dep <= 0.85\ngini = 0.5\nsamples = 2\nvalue = [1, 1, 0, 0]"] ;
5 -> 23 ;
24 [label="gini = 0.0\nsamples = 1\nvalue = [0, 1, 0, 0]"] ;
23 -> 24 ;
25 [label="gini = 0.0\nsamples = 1\nvalue = [1, 0, 0, 0]"] ;
23 -> 25 ;
26 [label="ram <= 824.0\ngini = 0.397\nsamples = 33\nvalue = [24, 9, 0, 0]"] ;
4 -> 26 ;
27 [label="fc <= 14.5\ngini = 0.153\nsamples = 24\nvalue = [22, 2, 0, 0]"] ;
26 -> 27 ;
28 [label="mobile_wt <= 194.0\ngini = 0.083\nsamples = 23\nvalue = [22, 1, 0, 0]"] ;
27 -> 28 ;
29 [label="gini = 0.0\nsamples = 21\nvalue = [21, 0, 0, 0]"] ;
28 -> 29 ;
30 [label="px_width <= 1860.0\ngini = 0.5\nsamples = 2\nvalue = [1, 1, 0, 0]"] ;
28 -> 30 ;
31 [label="gini = 0.0\nsamples = 1\nvalue = [0, 1, 0, 0]"] ;
30 -> 31 ;
32 [label="gini = 0.0\nsamples = 1\nvalue = [1, 0, 0, 0]"] ;
30 -> 32 ;
33 [label="gini = 0.0\nsamples = 1\nvalue = [0, 1, 0, 0]"] ;
27 -> 33 ;
34 [label="px_height <= 353.0\ngini = 0.346\nsamples = 9\nvalue = [2, 7, 0, 0]"] ;
26 -> 34 ;
35 [label="gini = 0.0\nsamples = 2\nvalue = [2, 0, 0, 0]"] ;
34 -> 35 ;
36 [label="gini = 0.0\nsamples = 7\nvalue = [0, 7, 0, 0]"] ;
34 -> 36 ;
37 [label="battery_power <= 1125.0\ngini = 0.516\nsamples = 82\nvalue = [45, 35, 2, 0]"] ;
3 -> 37 ;
38 [label="px_width <= 1770.5\ngini = 0.176\nsamples = 41\nvalue = [37, 4, 0, 0]"] ;
37 -> 38 ;
39 [label="talk_time <= 19.5\ngini = 0.097\nsamples = 39\nvalue = [37, 2, 0, 0]"] ;
38 -> 39 ;
40 [label="fc <= 11.5\ngini = 0.051\nsamples = 38\nvalue = [37, 1, 0, 0]"] ;
39 -> 40 ;
41 [label="gini = 0.0\nsamples = 35\nvalue = [35, 0, 0, 0]"] ;
40 -> 41 ;
42 [label="sc_h <= 10.5\ngini = 0.444\nsamples = 3\nvalue = [2, 1, 0, 0]"] ;
40 -> 42 ;
43 [label="gini = 0.0\nsamples = 2\nvalue = [2, 0, 0, 0]"] ;
42 -> 43 ;
44 [label="gini = 0.0\nsamples = 1\nvalue = [0, 1, 0, 0]"] ;
42 -> 44 ;
45 [label="gini = 0.0\nsamples = 1\nvalue = [0, 1, 0, 0]"] ;
39 -> 45 ;
46 [label="gini = 0.0\nsamples = 2\nvalue = [0, 2, 0, 0]"] ;
38 -> 46 ;
47 [label="px_width <= 986.5\ngini = 0.388\nsamples = 41\nvalue = [8, 31, 2, 0]"] ;
37 -> 47 ;
48 [label="battery_power <= 1494.5\ngini = 0.463\nsamples = 11\nvalue = [7, 4, 0, 0]"] ;
47 -> 48 ;
49 [label="gini = 0.0\nsamples = 6\nvalue = [6, 0, 0, 0]"] ;
48 -> 49 ;
50 [label="m_dep <= 0.85\ngini = 0.32\nsamples = 5\nvalue = [1, 4, 0, 0]"] ;
48 -> 50 ;
51 [label="gini = 0.0\nsamples = 4\nvalue = [0, 4, 0, 0]"] ;
50 -> 51 ;
52 [label="gini = 0.0\nsamples = 1\nvalue = [1, 0, 0, 0]"] ;
50 -> 52 ;
53 [label="px_width <= 1957.5\ngini = 0.184\nsamples = 30\nvalue = [1, 27, 2, 0]"] ;
47 -> 53 ;
54 [label="mobile_wt <= 85.5\ngini = 0.069\nsamples = 28\nvalue = [1, 27, 0, 0]"] ;
53 -> 54 ;
55 [label="gini = 0.0\nsamples = 1\nvalue = [1, 0, 0, 0]"] ;
54 -> 55 ;
56 [label="gini = 0.0\nsamples = 27\nvalue = [0, 27, 0, 0]"] ;
54 -> 56 ;
57 [label="gini = 0.0\nsamples = 2\nvalue = [0, 0, 2, 0]"] ;
53 -> 57 ;
58 [label="m_dep <= 0.25\ngini = 0.299\nsamples = 23\nvalue = [3, 19, 1, 0]"] ;
2 -> 58 ;
59 [label="gini = 0.0\nsamples = 2\nvalue = [2, 0, 0, 0]"] ;
58 -> 59 ;
60 [label="px_width <= 1587.0\ngini = 0.177\nsamples = 21\nvalue = [1, 19, 1, 0]"] ;
58 -> 60 ;
61 [label="gini = 0.0\nsamples = 1\nvalue = [1, 0, 0, 0]"] ;
60 -> 61 ;
62 [label="battery_power <= 1933.5\ngini = 0.095\nsamples = 20\nvalue = [0, 19, 1, 0]"] ;
60 -> 62 ;
63 [label="gini = 0.0\nsamples = 19\nvalue = [0, 19, 0, 0]"] ;
62 -> 63 ;
64 [label="gini = 0.0\nsamples = 1\nvalue = [0, 0, 1, 0]"] ;
62 -> 64 ;
65 [label="ram <= 2129.5\ngini = 0.569\nsamples = 519\nvalue = [29, 276, 197, 17]"] ;
1 -> 65 ;
66 [label="px_height <= 1169.0\ngini = 0.437\nsamples = 298\nvalue = [29, 215, 54, 0]"] ;
65 -> 66 ;
67 [label="battery_power <= 1496.0\ngini = 0.369\nsamples = 249\nvalue = [29, 194, 26, 0]"] ;
66 -> 67 ;
68 [label="ram <= 1639.0\ngini = 0.291\nsamples = 164\nvalue = [29, 135, 0, 0]"] ;
67 -> 68 ;
69 [label="battery_power <= 1065.0\ngini = 0.496\nsamples = 55\nvalue = [25, 30, 0, 0]"] ;
68 -> 69 ;
70 [label="px_height <= 599.5\ngini = 0.438\nsamples = 34\nvalue = [23, 11, 0, 0]"] ;
69 -> 70 ;
71 [label="px_width <= 1567.5\ngini = 0.165\nsamples = 22\nvalue = [20, 2, 0, 0]"] ;
70 -> 71 ;
72 [label="gini = 0.0\nsamples = 19\nvalue = [19, 0, 0, 0]"] ;
71 -> 72 ;
73 [label="mobile_wt <= 169.5\ngini = 0.444\nsamples = 3\nvalue = [1, 2, 0, 0]"] ;
71 -> 73 ;
74 [label="gini = 0.0\nsamples = 2\nvalue = [0, 2, 0, 0]"] ;
73 -> 74 ;
75 [label="gini = 0.0\nsamples = 1\nvalue = [1, 0, 0, 0]"] ;
73 -> 75 ;
76 [label="px_width <= 1152.5\ngini = 0.375\nsamples = 12\nvalue = [3, 9, 0, 0]"] ;
70 -> 76 ;
77 [label="sc_h <= 12.0\ngini = 0.375\nsamples = 4\nvalue = [3, 1, 0, 0]"] ;
76 -> 77 ;
78 [label="gini = 0.0\nsamples = 1\nvalue = [0, 1, 0, 0]"] ;
77 -> 78 ;
79 [label="gini = 0.0\nsamples = 3\nvalue = [3, 0, 0, 0]"] ;
77 -> 79 ;
80 [label="gini = 0.0\nsamples = 8\nvalue = [0, 8, 0, 0]"] ;
76 -> 80 ;
81 [label="px_width <= 822.5\ngini = 0.172\nsamples = 21\nvalue = [2, 19, 0, 0]"] ;
69 -> 81 ;
82 [label="gini = 0.0\nsamples = 2\nvalue = [2, 0, 0, 0]"] ;
81 -> 82 ;
83 [label="gini = 0.0\nsamples = 19\nvalue = [0, 19, 0, 0]"] ;
81 -> 83 ;
84 [label="px_width <= 598.5\ngini = 0.071\nsamples = 109\nvalue = [4, 105, 0, 0]"] ;
68 -> 84 ;
85 [label="mobile_wt <= 184.0\ngini = 0.49\nsamples = 7\nvalue = [4, 3, 0, 0]"] ;
84 -> 85 ;
86 [label="gini = 0.0\nsamples = 4\nvalue = [4, 0, 0, 0]"] ;
85 -> 86 ;
87 [label="gini = 0.0\nsamples = 3\nvalue = [0, 3, 0, 0]"] ;
85 -> 87 ;
88 [label="gini = 0.0\nsamples = 102\nvalue = [0, 102, 0, 0]"] ;
84 -> 88 ;
89 [label="ram <= 1896.5\ngini = 0.425\nsamples = 85\nvalue = [0, 59, 26, 0]"] ;
67 -> 89 ;
90 [label="px_height <= 857.5\ngini = 0.242\nsamples = 64\nvalue = [0, 55, 9, 0]"] ;
89 -> 90 ;
91 [label="px_width <= 1978.5\ngini = 0.074\nsamples = 52\nvalue = [0, 50, 2, 0]"] ;
90 -> 91 ;
92 [label="px_width <= 1800.5\ngini = 0.038\nsamples = 51\nvalue = [0, 50, 1, 0]"] ;
91 -> 92 ;
93 [label="gini = 0.0\nsamples = 48\nvalue = [0, 48, 0, 0]"] ;
92 -> 93 ;
94 [label="int_memory <= 25.5\ngini = 0.444\nsamples = 3\nvalue = [0, 2, 1, 0]"] ;
92 -> 94 ;
95 [label="gini = 0.0\nsamples = 2\nvalue = [0, 2, 0, 0]"] ;
94 -> 95 ;
96 [label="gini = 0.0\nsamples = 1\nvalue = [0, 0, 1, 0]"] ;
94 -> 96 ;
97 [label="gini = 0.0\nsamples = 1\nvalue = [0, 0, 1, 0]"] ;
91 -> 97 ;
98 [label="ram <= 1642.0\ngini = 0.486\nsamples = 12\nvalue = [0, 5, 7, 0]"] ;
90 -> 98 ;
99 [label="sc_h <= 16.5\ngini = 0.278\nsamples = 6\nvalue = [0, 5, 1, 0]"] ;
98 -> 99 ;
100 [label="gini = 0.0\nsamples = 5\nvalue = [0, 5, 0, 0]"] ;
99 -> 100 ;
101 [label="gini = 0.0\nsamples = 1\nvalue = [0, 0, 1, 0]"] ;
99 -> 101 ;
102 [label="gini = 0.0\nsamples = 6\nvalue = [0, 0, 6, 0]"] ;
98 -> 102 ;
103 [label="px_width <= 905.5\ngini = 0.308\nsamples = 21\nvalue = [0, 4, 17, 0]"] ;
89 -> 103 ;
104 [label="int_memory <= 35.0\ngini = 0.32\nsamples = 5\nvalue = [0, 4, 1, 0]"] ;
103 -> 104 ;
105 [label="gini = 0.0\nsamples = 1\nvalue = [0, 0, 1, 0]"] ;
104 -> 105 ;
106 [label="gini = 0.0\nsamples = 4\nvalue = [0, 4, 0, 0]"] ;
104 -> 106 ;
107 [label="gini = 0.0\nsamples = 16\nvalue = [0, 0, 16, 0]"] ;
103 -> 107 ;
108 [label="battery_power <= 1113.0\ngini = 0.49\nsamples = 49\nvalue = [0, 21, 28, 0]"] ;
66 -> 108 ;
109 [label="ram <= 2044.0\ngini = 0.208\nsamples = 17\nvalue = [0, 15, 2, 0]"] ;
108 -> 109 ;
110 [label="mobile_wt <= 81.5\ngini = 0.117\nsamples = 16\nvalue = [0, 15, 1, 0]"] ;
109 -> 110 ;
111 [label="gini = 0.0\nsamples = 1\nvalue = [0, 0, 1, 0]"] ;
110 -> 111 ;
112 [label="gini = 0.0\nsamples = 15\nvalue = [0, 15, 0, 0]"] ;
110 -> 112 ;
113 [label="gini = 0.0\nsamples = 1\nvalue = [0, 0, 1, 0]"] ;
109 -> 113 ;
114 [label="ram <= 1503.0\ngini = 0.305\nsamples = 32\nvalue = [0, 6, 26, 0]"] ;
108 -> 114 ;
115 [label="clock_speed <= 0.95\ngini = 0.49\nsamples = 7\nvalue = [0, 4, 3, 0]"] ;
114 -> 115 ;
116 [label="gini = 0.0\nsamples = 3\nvalue = [0, 0, 3, 0]"] ;
115 -> 116 ;
117 [label="gini = 0.0\nsamples = 4\nvalue = [0, 4, 0, 0]"] ;
115 -> 117 ;
118 [label="px_width <= 1492.0\ngini = 0.147\nsamples = 25\nvalue = [0, 2, 23, 0]"] ;
114 -> 118 ;
119 [label="clock_speed <= 0.95\ngini = 0.444\nsamples = 6\nvalue = [0, 2, 4, 0]"] ;
118 -> 119 ;
120 [label="gini = 0.0\nsamples = 2\nvalue = [0, 2, 0, 0]"] ;
119 -> 120 ;
121 [label="gini = 0.0\nsamples = 4\nvalue = [0, 0, 4, 0]"] ;
119 -> 121 ;
122 [label="gini = 0.0\nsamples = 19\nvalue = [0, 0, 19, 0]"] ;
118 -> 122 ;
123 [label="battery_power <= 722.5\ngini = 0.499\nsamples = 221\nvalue = [0, 61, 143, 17]"] ;
65 -> 123 ;
124 [label="px_height <= 679.5\ngini = 0.44\nsamples = 49\nvalue = [0, 33, 16, 0]"] ;
123 -> 124 ;
125 [label="px_width <= 1683.0\ngini = 0.208\nsamples = 34\nvalue = [0, 30, 4, 0]"] ;
124 -> 125 ;
126 [label="sc_h <= 18.5\ngini = 0.121\nsamples = 31\nvalue = [0, 29, 2, 0]"] ;
125 -> 126 ;
127 [label="ram <= 2705.5\ngini = 0.064\nsamples = 30\nvalue = [0, 29, 1, 0]"] ;
126 -> 127 ;
128 [label="gini = 0.0\nsamples = 29\nvalue = [0, 29, 0, 0]"] ;
127 -> 128 ;
129 [label="gini = 0.0\nsamples = 1\nvalue = [0, 0, 1, 0]"] ;
127 -> 129 ;
130 [label="gini = 0.0\nsamples = 1\nvalue = [0, 0, 1, 0]"] ;
126 -> 130 ;
131 [label="int_memory <= 20.0\ngini = 0.444\nsamples = 3\nvalue = [0, 1, 2, 0]"] ;
125 -> 131 ;
132 [label="gini = 0.0\nsamples = 2\nvalue = [0, 0, 2, 0]"] ;
131 -> 132 ;
133 [label="gini = 0.0\nsamples = 1\nvalue = [0, 1, 0, 0]"] ;
131 -> 133 ;
134 [label="px_width <= 1083.0\ngini = 0.32\nsamples = 15\nvalue = [0, 3, 12, 0]"] ;
124 -> 134 ;
135 [label="ram <= 2589.5\ngini = 0.444\nsamples = 3\nvalue = [0, 2, 1, 0]"] ;
134 -> 135 ;
136 [label="gini = 0.0\nsamples = 2\nvalue = [0, 2, 0, 0]"] ;
135 -> 136 ;
137 [label="gini = 0.0\nsamples = 1\nvalue = [0, 0, 1, 0]"] ;
135 -> 137 ;
138 [label="clock_speed <= 2.6\ngini = 0.153\nsamples = 12\nvalue = [0, 1, 11, 0]"] ;
134 -> 138 ;
139 [label="gini = 0.0\nsamples = 11\nvalue = [0, 0, 11, 0]"] ;
138 -> 139 ;
140 [label="gini = 0.0\nsamples = 1\nvalue = [0, 1, 0, 0]"] ;
138 -> 140 ;
141 [label="px_width <= 838.5\ngini = 0.419\nsamples = 172\nvalue = [0, 28, 127, 17]"] ;
123 -> 141 ;
142 [label="ram <= 2464.5\ngini = 0.5\nsamples = 42\nvalue = [0, 21, 21, 0]"] ;
141 -> 142 ;
143 [label="battery_power <= 1508.5\ngini = 0.311\nsamples = 26\nvalue = [0, 21, 5, 0]"] ;
142 -> 143 ;
144 [label="gini = 0.0\nsamples = 21\nvalue = [0, 21, 0, 0]"] ;
143 -> 144 ;
145 [label="gini = 0.0\nsamples = 5\nvalue = [0, 0, 5, 0]"] ;
143 -> 145 ;
146 [label="gini = 0.0\nsamples = 16\nvalue = [0, 0, 16, 0]"] ;
142 -> 146 ;
147 [label="px_height <= 1377.5\ngini = 0.315\nsamples = 130\nvalue = [0, 7, 106, 17]"] ;
141 -> 147 ;
148 [label="battery_power <= 1941.5\ngini = 0.243\nsamples = 118\nvalue = [0, 7, 102, 9]"] ;
147 -> 148 ;
149 [label="battery_power <= 932.5\ngini = 0.199\nsamples = 111\nvalue = [0, 7, 99, 5]"] ;
148 -> 149 ;
150 [label="px_width <= 1268.5\ngini = 0.434\nsamples = 22\nvalue = [0, 7, 15, 0]"] ;
149 -> 150 ;
151 [label="battery_power <= 774.0\ngini = 0.245\nsamples = 7\nvalue = [0, 6, 1, 0]"] ;
150 -> 151 ;
152 [label="gini = 0.0\nsamples = 1\nvalue = [0, 0, 1, 0]"] ;
151 -> 152 ;
153 [label="gini = 0.0\nsamples = 6\nvalue = [0, 6, 0, 0]"] ;
151 -> 153 ;
154 [label="mobile_wt <= 103.5\ngini = 0.124\nsamples = 15\nvalue = [0, 1, 14, 0]"] ;
150 -> 154 ;
155 [label="gini = 0.0\nsamples = 1\nvalue = [0, 1, 0, 0]"] ;
154 -> 155 ;
156 [label="gini = 0.0\nsamples = 14\nvalue = [0, 0, 14, 0]"] ;
154 -> 156 ;
157 [label="px_height <= 1093.5\ngini = 0.106\nsamples = 89\nvalue = [0, 0, 84, 5]"] ;
149 -> 157 ;
158 [label="m_dep <= 0.95\ngini = 0.049\nsamples = 79\nvalue = [0, 0, 77, 2]"] ;
157 -> 158 ;
159 [label="battery_power <= 1874.0\ngini = 0.026\nsamples = 76\nvalue = [0, 0, 75, 1]"] ;
158 -> 159 ;
160 [label="gini = 0.0\nsamples = 72\nvalue = [0, 0, 72, 0]"] ;
159 -> 160 ;
161 [label="ram <= 2500.5\ngini = 0.375\nsamples = 4\nvalue = [0, 0, 3, 1]"] ;
159 -> 161 ;
162 [label="gini = 0.0\nsamples = 3\nvalue = [0, 0, 3, 0]"] ;
161 -> 162 ;
163 [label="gini = 0.0\nsamples = 1\nvalue = [0, 0, 0, 1]"] ;
161 -> 163 ;
164 [label="fc <= 4.0\ngini = 0.444\nsamples = 3\nvalue = [0, 0, 2, 1]"] ;
158 -> 164 ;
165 [label="gini = 0.0\nsamples = 2\nvalue = [0, 0, 2, 0]"] ;
164 -> 165 ;
166 [label="gini = 0.0\nsamples = 1\nvalue = [0, 0, 0, 1]"] ;
164 -> 166 ;
167 [label="battery_power <= 1538.0\ngini = 0.42\nsamples = 10\nvalue = [0, 0, 7, 3]"] ;
157 -> 167 ;
168 [label="gini = 0.0\nsamples = 7\nvalue = [0, 0, 7, 0]"] ;
167 -> 168 ;
169 [label="gini = 0.0\nsamples = 3\nvalue = [0, 0, 0, 3]"] ;
167 -> 169 ;
170 [label="ram <= 2421.0\ngini = 0.49\nsamples = 7\nvalue = [0, 0, 3, 4]"] ;
148 -> 170 ;
171 [label="sc_w <= 7.5\ngini = 0.375\nsamples = 4\nvalue = [0, 0, 3, 1]"] ;
170 -> 171 ;
172 [label="gini = 0.0\nsamples = 1\nvalue = [0, 0, 0, 1]"] ;
171 -> 172 ;
173 [label="gini = 0.0\nsamples = 3\nvalue = [0, 0, 3, 0]"] ;
171 -> 173 ;
174 [label="gini = 0.0\nsamples = 3\nvalue = [0, 0, 0, 3]"] ;
170 -> 174 ;
175 [label="battery_power <= 1026.0\ngini = 0.444\nsamples = 12\nvalue = [0, 0, 4, 8]"] ;
147 -> 175 ;
176 [label="gini = 0.0\nsamples = 4\nvalue = [0, 0, 4, 0]"] ;
175 -> 176 ;
177 [label="gini = 0.0\nsamples = 8\nvalue = [0, 0, 0, 8]"] ;
175 -> 177 ;
178 [label="ram <= 3191.0\ngini = 0.364\nsamples = 435\nvalue = [0, 2, 101, 332]"] ;
0 -> 178 [labeldistance=2.5, labelangle=-45, headlabel="False"] ;
179 [label="battery_power <= 1165.5\ngini = 0.514\nsamples = 128\nvalue = [0, 2, 66, 60]"] ;
178 -> 179 ;
180 [label="px_height <= 1221.0\ngini = 0.336\nsamples = 59\nvalue = [0, 2, 47, 10]"] ;
179 -> 180 ;
181 [label="px_width <= 1974.5\ngini = 0.192\nsamples = 48\nvalue = [0, 2, 43, 3]"] ;
180 -> 181 ;
182 [label="mobile_wt <= 85.0\ngini = 0.159\nsamples = 47\nvalue = [0, 2, 43, 2]"] ;
181 -> 182 ;
183 [label="gini = 0.0\nsamples = 1\nvalue = [0, 0, 0, 1]"] ;
182 -> 183 ;
184 [label="battery_power <= 575.0\ngini = 0.124\nsamples = 46\nvalue = [0, 2, 43, 1]"] ;
182 -> 184 ;
185 [label="wifi <= 0.5\ngini = 0.48\nsamples = 5\nvalue = [0, 2, 3, 0]"] ;
184 -> 185 ;
186 [label="gini = 0.0\nsamples = 3\nvalue = [0, 0, 3, 0]"] ;
185 -> 186 ;
187 [label="gini = 0.0\nsamples = 2\nvalue = [0, 2, 0, 0]"] ;
185 -> 187 ;
188 [label="mobile_wt <= 104.5\ngini = 0.048\nsamples = 41\nvalue = [0, 0, 40, 1]"] ;
184 -> 188 ;
189 [label="battery_power <= 953.5\ngini = 0.375\nsamples = 4\nvalue = [0, 0, 3, 1]"] ;
188 -> 189 ;
190 [label="gini = 0.0\nsamples = 3\nvalue = [0, 0, 3, 0]"] ;
189 -> 190 ;
191 [label="gini = 0.0\nsamples = 1\nvalue = [0, 0, 0, 1]"] ;
189 -> 191 ;
192 [label="gini = 0.0\nsamples = 37\nvalue = [0, 0, 37, 0]"] ;
188 -> 192 ;
193 [label="gini = 0.0\nsamples = 1\nvalue = [0, 0, 0, 1]"] ;
181 -> 193 ;
194 [label="sc_w <= 5.0\ngini = 0.463\nsamples = 11\nvalue = [0, 0, 4, 7]"] ;
180 -> 194 ;
195 [label="gini = 0.0\nsamples = 6\nvalue = [0, 0, 0, 6]"] ;
194 -> 195 ;
196 [label="sc_h <= 17.5\ngini = 0.32\nsamples = 5\nvalue = [0, 0, 4, 1]"] ;
194 -> 196 ;
197 [label="gini = 0.0\nsamples = 4\nvalue = [0, 0, 4, 0]"] ;
196 -> 197 ;
198 [label="gini = 0.0\nsamples = 1\nvalue = [0, 0, 0, 1]"] ;
196 -> 198 ;
199 [label="px_height <= 585.0\ngini = 0.399\nsamples = 69\nvalue = [0, 0, 19, 50]"] ;
179 -> 199 ;
200 [label="mobile_wt <= 126.0\ngini = 0.5\nsamples = 33\nvalue = [0, 0, 17, 16]"] ;
199 -> 200 ;
201 [label="ram <= 2769.0\ngini = 0.26\nsamples = 13\nvalue = [0, 0, 2, 11]"] ;
200 -> 201 ;
202 [label="gini = 0.0\nsamples = 1\nvalue = [0, 0, 1, 0]"] ;
201 -> 202 ;
203 [label="mobile_wt <= 98.5\ngini = 0.153\nsamples = 12\nvalue = [0, 0, 1, 11]"] ;
201 -> 203 ;
204 [label="touch_screen <= 0.5\ngini = 0.444\nsamples = 3\nvalue = [0, 0, 1, 2]"] ;
203 -> 204 ;
205 [label="gini = 0.0\nsamples = 2\nvalue = [0, 0, 0, 2]"] ;
204 -> 205 ;
206 [label="gini = 0.0\nsamples = 1\nvalue = [0, 0, 1, 0]"] ;
204 -> 206 ;
207 [label="gini = 0.0\nsamples = 9\nvalue = [0, 0, 0, 9]"] ;
203 -> 207 ;
208 [label="battery_power <= 1729.5\ngini = 0.375\nsamples = 20\nvalue = [0, 0, 15, 5]"] ;
200 -> 208 ;
209 [label="pc <= 4.0\ngini = 0.133\nsamples = 14\nvalue = [0, 0, 13, 1]"] ;
208 -> 209 ;
210 [label="gini = 0.0\nsamples = 1\nvalue = [0, 0, 0, 1]"] ;
209 -> 210 ;
211 [label="gini = 0.0\nsamples = 13\nvalue = [0, 0, 13, 0]"] ;
209 -> 211 ;
212 [label="px_width <= 649.5\ngini = 0.444\nsamples = 6\nvalue = [0, 0, 2, 4]"] ;
208 -> 212 ;
213 [label="gini = 0.0\nsamples = 2\nvalue = [0, 0, 2, 0]"] ;
212 -> 213 ;
214 [label="gini = 0.0\nsamples = 4\nvalue = [0, 0, 0, 4]"] ;
212 -> 214 ;
215 [label="int_memory <= 8.0\ngini = 0.105\nsamples = 36\nvalue = [0, 0, 2, 34]"] ;
199 -> 215 ;
216 [label="ram <= 2879.0\ngini = 0.5\nsamples = 2\nvalue = [0, 0, 1, 1]"] ;
215 -> 216 ;
217 [label="gini = 0.0\nsamples = 1\nvalue = [0, 0, 1, 0]"] ;
216 -> 217 ;
218 [label="gini = 0.0\nsamples = 1\nvalue = [0, 0, 0, 1]"] ;
216 -> 218 ;
219 [label="n_cores <= 1.5\ngini = 0.057\nsamples = 34\nvalue = [0, 0, 1, 33]"] ;
215 -> 219 ;
220 [label="mobile_wt <= 174.0\ngini = 0.375\nsamples = 4\nvalue = [0, 0, 1, 3]"] ;
219 -> 220 ;
221 [label="gini = 0.0\nsamples = 3\nvalue = [0, 0, 0, 3]"] ;
220 -> 221 ;
222 [label="gini = 0.0\nsamples = 1\nvalue = [0, 0, 1, 0]"] ;
220 -> 222 ;
223 [label="gini = 0.0\nsamples = 30\nvalue = [0, 0, 0, 30]"] ;
219 -> 223 ;
224 [label="battery_power <= 898.0\ngini = 0.202\nsamples = 307\nvalue = [0, 0, 35, 272]"] ;
178 -> 224 ;
225 [label="px_height <= 576.0\ngini = 0.455\nsamples = 77\nvalue = [0, 0, 27, 50]"] ;
224 -> 225 ;
226 [label="ram <= 3741.5\ngini = 0.444\nsamples = 39\nvalue = [0, 0, 26, 13]"] ;
225 -> 226 ;
227 [label="px_width <= 1498.0\ngini = 0.252\nsamples = 27\nvalue = [0, 0, 23, 4]"] ;
226 -> 227 ;
228 [label="mobile_wt <= 106.0\ngini = 0.147\nsamples = 25\nvalue = [0, 0, 23, 2]"] ;
227 -> 228 ;
229 [label="gini = 0.0\nsamples = 1\nvalue = [0, 0, 0, 1]"] ;
228 -> 229 ;
230 [label="px_width <= 1243.0\ngini = 0.08\nsamples = 24\nvalue = [0, 0, 23, 1]"] ;
228 -> 230 ;
231 [label="gini = 0.0\nsamples = 21\nvalue = [0, 0, 21, 0]"] ;
230 -> 231 ;
232 [label="clock_speed <= 1.5\ngini = 0.444\nsamples = 3\nvalue = [0, 0, 2, 1]"] ;
230 -> 232 ;
233 [label="gini = 0.0\nsamples = 2\nvalue = [0, 0, 2, 0]"] ;
232 -> 233 ;
234 [label="gini = 0.0\nsamples = 1\nvalue = [0, 0, 0, 1]"] ;
232 -> 234 ;
235 [label="gini = 0.0\nsamples = 2\nvalue = [0, 0, 0, 2]"] ;
227 -> 235 ;
236 [label="n_cores <= 2.5\ngini = 0.375\nsamples = 12\nvalue = [0, 0, 3, 9]"] ;
226 -> 236 ;
237 [label="battery_power <= 741.5\ngini = 0.48\nsamples = 5\nvalue = [0, 0, 3, 2]"] ;
236 -> 237 ;
238 [label="gini = 0.0\nsamples = 3\nvalue = [0, 0, 3, 0]"] ;
237 -> 238 ;
239 [label="gini = 0.0\nsamples = 2\nvalue = [0, 0, 0, 2]"] ;
237 -> 239 ;
240 [label="gini = 0.0\nsamples = 7\nvalue = [0, 0, 0, 7]"] ;
236 -> 240 ;
241 [label="px_width <= 909.0\ngini = 0.051\nsamples = 38\nvalue = [0, 0, 1, 37]"] ;
225 -> 241 ;
242 [label="blue <= 0.5\ngini = 0.444\nsamples = 3\nvalue = [0, 0, 1, 2]"] ;
241 -> 242 ;
243 [label="gini = 0.0\nsamples = 1\nvalue = [0, 0, 1, 0]"] ;
242 -> 243 ;
244 [label="gini = 0.0\nsamples = 2\nvalue = [0, 0, 0, 2]"] ;
242 -> 244 ;
245 [label="gini = 0.0\nsamples = 35\nvalue = [0, 0, 0, 35]"] ;
241 -> 245 ;
246 [label="ram <= 3351.5\ngini = 0.067\nsamples = 230\nvalue = [0, 0, 8, 222]"] ;
224 -> 246 ;
247 [label="px_width <= 755.5\ngini = 0.265\nsamples = 51\nvalue = [0, 0, 8, 43]"] ;
246 -> 247 ;
248 [label="sc_h <= 14.0\ngini = 0.375\nsamples = 8\nvalue = [0, 0, 6, 2]"] ;
247 -> 248 ;
249 [label="gini = 0.0\nsamples = 6\nvalue = [0, 0, 6, 0]"] ;
248 -> 249 ;
250 [label="gini = 0.0\nsamples = 2\nvalue = [0, 0, 0, 2]"] ;
248 -> 250 ;
251 [label="px_height <= 31.5\ngini = 0.089\nsamples = 43\nvalue = [0, 0, 2, 41]"] ;
247 -> 251 ;
252 [label="gini = 0.0\nsamples = 1\nvalue = [0, 0, 1, 0]"] ;
251 -> 252 ;
253 [label="int_memory <= 7.5\ngini = 0.046\nsamples = 42\nvalue = [0, 0, 1, 41]"] ;
251 -> 253 ;
254 [label="blue <= 0.5\ngini = 0.444\nsamples = 3\nvalue = [0, 0, 1, 2]"] ;
253 -> 254 ;
255 [label="gini = 0.0\nsamples = 1\nvalue = [0, 0, 1, 0]"] ;
254 -> 255 ;
256 [label="gini = 0.0\nsamples = 2\nvalue = [0, 0, 0, 2]"] ;
254 -> 256 ;
257 [label="gini = 0.0\nsamples = 39\nvalue = [0, 0, 0, 39]"] ;
253 -> 257 ;
258 [label="gini = 0.0\nsamples = 179\nvalue = [0, 0, 0, 179]"] ;
246 -> 258 ;
}